0.2812500000,-0.3750000000,-0.0703125000,-0.3828125000,0.0312500000,0.0781250000,0.2031250000,-0.0000000000,0.4140625000,-0.3046875000,0.1640625000,-0.3515625000,-0.2187500000,-0.2421875000,-0.4296875000,-0.1171875000,0.2578125000,0.2578125000,0.0156250000,-0.3046875000,0.2265625000,0.4765625000,0.2968750000,0.0468750000,-0.5781250000,0.3203125000,0.0781250000,-0.0781250000,-0.2343750000,-0.1250000000,-0.3125000000,-0.3593750000,-0.1796875000,0.0468750000,-0.2421875000,-0.6093750000,-0.0625000000,0.2421875000,0.2812500000,-0.4218750000,-0.6328125000,-0.0078125000,0.1953125000,0.3828125000,0.3906250000,-0.1640625000,0.3750000000,-0.4687500000,0.3515625000,0.2187500000,-0.0078125000,0.3515625000,-0.0468750000,0.1406250000,0.0937500000,0.4921875000,-0.0625000000,-0.1093750000,0.3984375000,-0.0781250000,0.0468750000,-0.0859375000,-0.1328125000,0.0312500000,-0.0234375000,0.1015625000,-0.2109375000,-0.2187500000,0.1171875000,-0.2656250000,0.3671875000,-0.0234375000,-0.2500000000,0.1015625000,-0.1562500000,-0.2734375000,-0.0703125000,-0.1328125000,0.3828125000,-0.1640625000,0.1015625000,0.2109375000,0.0546875000,0.3046875000,-0.0937500000,-0.6406250000,-0.1796875000,-0.3437500000,0.0859375000,0.4453125000,-0.4140625000,0.0703125000,-0.3515625000,-0.0234375000,0.2187500000,-0.0312500000,-0.2265625000,-0.0859375000,-0.2265625000,0.2343750000,0.1406250000,-0.3984375000,-0.1953125000,-0.1328125000,0.3515625000,-0.7812500000,0.4218750000,-0.1640625000,-0.0937500000,-0.1796875000,-0.1562500000,-0.3437500000,0.1640625000,0.2187500000,-0.1796875000,0.1015625000,0.2578125000,-0.2968750000,-0.5000000000,0.4921875000,0.5312500000,-0.1015625000,-0.1640625000,-0.2812500000,-0.2031250000,-0.1562500000,0.3046875000,0.1171875000,0.2968750000,-0.0234375000,0.0234375000,0.3515625000,0.1250000000,0.3671875000,-0.2187500000,0.1406250000,0.0625000000,0.3125000000,-0.4375000000,-0.3359375000,0.0390625000,-0.0625000000,-0.1406250000,-0.4140625000